svm_type c_svc
kernel_type linear
nr_class 5
total_sv 30
rho -5.987442999858014 -4.672931331124048 -1.9303766804319995 -4.728950100159662 -6.547801517921765 -3.3292490731068756 -8.635811490509937 -9.058453287753053 -5.751884667689823 -2.4567167903896574
label 0 1 2 3 4
probA -1.4352265604869083 -1.4921547523465135 -2.198326543864096 -1.7277100061879418 -1.7279723421063287 -2.123926588676548 -1.2360263749009932 -1.8583290907536862 -1.518808266676852 -1.1899684039870424
probB 0.2693309228457239 0.2188914318548562 0.19717287186770657 0.6553547300591241 -0.08207023649104982 0.07433729186793815 0.4213101610911495 0.11072997921442815 0.6335456222673455 0.2989008752853084
nr_sv 6 9 6 5 4
SV
64.0 0.0 0.0 0.0 0:0.2698643006086349 1:0.35774811275303364 
64.0 0.0 0.0 0.0 0:0.2692440291494131 1:0.3761079708635807 
2.2685748109180968 0.0 0.0 0.0 0:0.25394310694932937 1:0.3942299771904945 
64.0 0.0 0.0 36.62848314851449 0:0.2708081548511982 1:0.4586390872299671 
64.0 0.0 0.0 0.0 0:0.29548054667562246 1:0.355933287858963 
64.0 44.19153873567269 6.605335501994481 0.0 0:0.31340453447401523 1:0.44114312690496443 
-64.0 0.0 0.0 0.0 0:0.30548706197738645 1:0.15344441475719214 
-0.0 64.0 4.157326758511841 0.0 0:0.4588575612604618 1:0.17234937745332718 
-64.0 0.0 0.0 0.0 0:0.34537469494342804 1:0.24857372254133225 
-55.381768880437605 0.0 0.0 0.0 0:0.3624330105781555 1:0.3613288741707802 
-0.0 64.0 10.211417125871705 0.0 0:0.485710551828146 1:0.39204897290468216 
-64.0 0.0 0.0 0.0 0:0.3492988651096821 1:0.5573221974670887 
-0.0 8.128037024927634 0.0 30.088278097189633 0:0.43593260455131533 1:0.5765356160104275 
-10.886805930480492 0.0 0.0 64.0 0:0.3541448895931244 1:0.5984175050258637 
-64.0 0.0 0.0 64.0 0:0.3448614532351494 1:0.6399144559502602 
-0.0 -0.0 15.972344353364823 0.0 0:0.6817978876531124 1:0.048758695602416996 
-2.323433106964096 -64.0 0.0 0.0 0:0.5939321438670159 1:0.10693805636465549 
-0.0 -8.128037024927648 0.0 0.0 0:0.6109428468942643 1:0.2796692124307156 
-0.0 -0.0 61.18715203952398 0.0 0:0.7048908125460148 1:0.4136053988337517 
-41.86810562870859 -64.0 0.0 0.0 0:0.5183700535297394 1:0.5018826342970133 
-0.0 -0.0 0.0 50.88308612804235 0:0.6871077630519867 1:0.5271888674497605 
-4.774573760186848 -14.368743884383548 -64.0 0.0 0:0.8482377472817898 1:0.2832233099937439 
-0.0 -0.0 -13.159496392888805 0.0 0:0.8819200284332037 1:0.5477693661898374 
-1.8307617418076332 -0.0 -0.0 0.0 0:0.8887593708485365 1:0.6045010241568088 
-0.0 -0.0 -0.0 0.14162385115022072 0:0.9279052409827709 1:0.6312690329551697 
-0.0 -0.0 -0.0 64.0 0:0.9339106436371803 1:0.6706353233754635 
-0.0 -0.0 -0.0 -63.66608605430575 0:0.8619984443485736 1:0.814775051265955 
-8.550015483533647 -64.0 -49.396409901584995 -0.4755377968444725 0:0.6880442017242312 1:0.7260965423583985 
-0.0 -30.088278097189622 -0.0 -0.0 0:0.1604794856160879 1:0.6911503099501133 
-28.078467664980845 -64.0 -1.4866762264573583 -0.0 0:0.11966265481710434 1:0.6810198431611061 
